Language model created by QuickLM on Sat Jun  9 17:29:01 EDT 2012
Copyright (c) 1996-2010 Carnegie Mellon University and Alexander I. Rudnicky

The model is in standard ARPA format, designed by Doug Paul while he was at MITRE.

The code that was used to produce this language model is available in Open Source.
Please visit http://www.speech.cs.cmu.edu/tools/ for more information

The (fixed) discount mass is 0.5. The backoffs are computed using the ratio method.
This model based on a corpus of 27 sentences and 31 words

\data\
ngram 1=31
ngram 2=56
ngram 3=59

\1-grams:
-0.9452 </s> -0.3010
-0.9452 <s> -0.2487
-2.3766 ALTO -0.2487
-2.0755 BACK -0.2487
-2.3766 BAHO -0.2487
-2.3766 BAJO -0.2487
-2.3766 BEAR -0.2487
-2.3766 COAL -0.2992
-2.3766 COLBERT -0.2487
-2.3766 DAILY -0.2992
-1.8995 DOWN -0.2487
-2.3766 ENTER -0.2487
-2.3766 ESCAPE -0.2487
-2.3766 FORWARD -0.2487
-2.3766 GO -0.2487
-2.0755 LATEST -0.2974
-2.3766 LEFT -0.2487
-2.3766 MENU -0.2487
-2.3766 MUTE -0.2487
-2.3766 OK -0.2487
-2.0755 PAGE -0.2899
-2.3766 PAUSE -0.2487
-1.8995 PLAY -0.2446
-2.3766 RIGHT -0.2487
-2.3766 SELECT -0.2487
-2.3766 SHOW -0.2487
-2.0755 SKIP -0.2955
-2.3766 STOP -0.2487
-0.9616 TIVO -0.2404
-1.8995 UP -0.2487
-2.0755 VOLUME -0.2899

\2-grams:
-1.7324 <s> COAL 0.0000
-0.3174 <s> TIVO -0.0000
-0.3010 ALTO </s> -0.3010
-0.3010 BACK </s> -0.3010
-0.3010 BAHO </s> -0.3010
-0.3010 BAJO </s> -0.3010
-0.3010 BEAR </s> -0.3010
-0.3010 COAL BEAR 0.0000
-0.3010 COLBERT </s> -0.3010
-0.3010 DAILY SHOW 0.0000
-0.3010 DOWN </s> -0.3010
-0.3010 ENTER </s> -0.3010
-0.3010 ESCAPE </s> -0.3010
-0.3010 FORWARD </s> -0.3010
-0.3010 GO </s> -0.3010
-0.6021 LATEST COLBERT 0.0000
-0.6021 LATEST DAILY 0.0000
-0.3010 LEFT </s> -0.3010
-0.3010 MENU </s> -0.3010
-0.3010 MUTE </s> -0.3010
-0.3010 OK </s> -0.3010
-0.6021 PAGE DOWN 0.0000
-0.6021 PAGE UP 0.0000
-0.3010 PAUSE </s> -0.3010
-0.7782 PLAY </s> -0.3010
-0.4771 PLAY LATEST 0.0000
-0.3010 RIGHT </s> -0.3010
-0.3010 SELECT </s> -0.3010
-0.3010 SHOW </s> -0.3010
-0.6021 SKIP BACK 0.0000
-0.6021 SKIP FORWARD 0.0000
-0.3010 STOP </s> -0.3010
-1.7160 TIVO ALTO 0.0000
-1.7160 TIVO BACK 0.0000
-1.7160 TIVO BAHO 0.0000
-1.7160 TIVO BAJO 0.0000
-1.7160 TIVO DOWN 0.0000
-1.7160 TIVO ENTER 0.0000
-1.7160 TIVO ESCAPE 0.0000
-1.7160 TIVO GO 0.0000
-1.7160 TIVO LEFT 0.0000
-1.7160 TIVO MENU 0.0000
-1.7160 TIVO MUTE 0.0000
-1.7160 TIVO OK 0.0000
-1.4150 TIVO PAGE 0.0000
-1.7160 TIVO PAUSE 0.0000
-1.2389 TIVO PLAY 0.0000
-1.7160 TIVO RIGHT 0.0000
-1.7160 TIVO SELECT 0.0000
-1.4150 TIVO SKIP 0.0000
-1.7160 TIVO STOP 0.0000
-1.7160 TIVO UP 0.0000
-1.4150 TIVO VOLUME 0.0000
-0.3010 UP </s> -0.3010
-0.6021 VOLUME DOWN 0.0000
-0.6021 VOLUME UP 0.0000

\3-grams:
-0.3010 <s> COAL BEAR
-1.7160 <s> TIVO ALTO
-1.7160 <s> TIVO BACK
-1.7160 <s> TIVO BAHO
-1.7160 <s> TIVO BAJO
-1.7160 <s> TIVO DOWN
-1.7160 <s> TIVO ENTER
-1.7160 <s> TIVO ESCAPE
-1.7160 <s> TIVO GO
-1.7160 <s> TIVO LEFT
-1.7160 <s> TIVO MENU
-1.7160 <s> TIVO MUTE
-1.7160 <s> TIVO OK
-1.4150 <s> TIVO PAGE
-1.7160 <s> TIVO PAUSE
-1.2389 <s> TIVO PLAY
-1.7160 <s> TIVO RIGHT
-1.7160 <s> TIVO SELECT
-1.4150 <s> TIVO SKIP
-1.7160 <s> TIVO STOP
-1.7160 <s> TIVO UP
-1.4150 <s> TIVO VOLUME
-0.3010 COAL BEAR </s>
-0.3010 DAILY SHOW </s>
-0.3010 LATEST COLBERT </s>
-0.3010 LATEST DAILY SHOW
-0.3010 PAGE DOWN </s>
-0.3010 PAGE UP </s>
-0.6021 PLAY LATEST COLBERT
-0.6021 PLAY LATEST DAILY
-0.3010 SKIP BACK </s>
-0.3010 SKIP FORWARD </s>
-0.3010 TIVO ALTO </s>
-0.3010 TIVO BACK </s>
-0.3010 TIVO BAHO </s>
-0.3010 TIVO BAJO </s>
-0.3010 TIVO DOWN </s>
-0.3010 TIVO ENTER </s>
-0.3010 TIVO ESCAPE </s>
-0.3010 TIVO GO </s>
-0.3010 TIVO LEFT </s>
-0.3010 TIVO MENU </s>
-0.3010 TIVO MUTE </s>
-0.3010 TIVO OK </s>
-0.6021 TIVO PAGE DOWN
-0.6021 TIVO PAGE UP
-0.3010 TIVO PAUSE </s>
-0.7782 TIVO PLAY </s>
-0.4771 TIVO PLAY LATEST
-0.3010 TIVO RIGHT </s>
-0.3010 TIVO SELECT </s>
-0.6021 TIVO SKIP BACK
-0.6021 TIVO SKIP FORWARD
-0.3010 TIVO STOP </s>
-0.3010 TIVO UP </s>
-0.6021 TIVO VOLUME DOWN
-0.6021 TIVO VOLUME UP
-0.3010 VOLUME DOWN </s>
-0.3010 VOLUME UP </s>

\end\
